digraph Tree {
node [shape=box] ;
0 [label="X[1] <= 1.3222\nmse = 325262095.046\nsamples = 1183\nvalue = 11997.8662"] ;
1 [label="X[4] <= 0.3396\nmse = 90591417.5394\nsamples = 1028\nvalue = 6465.8395"] ;
0 -> 1 [labeldistance=2.5, labelangle=45, headlabel="True"] ;
2 [label="X[9] <= 0.0418\nmse = 13530335.4353\nsamples = 799\nvalue = 3292.8115"] ;
1 -> 2 ;
3 [label="X[8] <= 2.0045\nmse = 6460818.9641\nsamples = 459\nvalue = 1593.5816"] ;
2 -> 3 ;
4 [label="X[15] <= 1.065\nmse = 2409110.793\nsamples = 452\nvalue = 1349.095"] ;
3 -> 4 ;
5 [label="mse = 1502470.2378\nsamples = 445\nvalue = 1230.694"] ;
4 -> 5 ;
6 [label="mse = 2499869.5441\nsamples = 7\nvalue = 8876.0121"] ;
4 -> 6 ;
7 [label="X[4] <= -1.2457\nmse = 15001055.8261\nsamples = 7\nvalue = 17380.4329"] ;
3 -> 7 ;
8 [label="mse = 2367974.9536\nsamples = 5\nvalue = 15074.0886"] ;
7 -> 8 ;
9 [label="mse = 40548.7815\nsamples = 2\nvalue = 23146.2936"] ;
7 -> 9 ;
10 [label="X[15] <= 0.9217\nmse = 13913962.8082\nsamples = 340\nvalue = 5586.7718"] ;
2 -> 10 ;
11 [label="X[15] <= -1.7899\nmse = 9834659.7901\nsamples = 291\nvalue = 4868.0236"] ;
10 -> 11 ;
12 [label="mse = 7391121.8974\nsamples = 7\nvalue = 16110.5798"] ;
11 -> 12 ;
13 [label="mse = 6702729.0686\nsamples = 284\nvalue = 4590.9184"] ;
11 -> 13 ;
14 [label="X[14] <= -1.5117\nmse = 16852108.016\nsamples = 49\nvalue = 9855.2557"] ;
10 -> 14 ;
15 [label="mse = 9859686.6815\nsamples = 7\nvalue = 17307.1419"] ;
14 -> 15 ;
16 [label="mse = 7219893.274\nsamples = 42\nvalue = 8613.2746"] ;
14 -> 16 ;
17 [label="X[15] <= 1.7581\nmse = 201769348.627\nsamples = 229\nvalue = 17536.7978"] ;
1 -> 17 ;
18 [label="X[10] <= 0.6268\nmse = 100152649.735\nsamples = 216\nvalue = 15196.3527"] ;
17 -> 18 ;
19 [label="X[9] <= 0.448\nmse = 33300191.6743\nsamples = 110\nvalue = 8960.1724"] ;
18 -> 19 ;
20 [label="mse = 3360359.2505\nsamples = 55\nvalue = 4436.4256"] ;
19 -> 20 ;
21 [label="mse = 22311455.1092\nsamples = 55\nvalue = 13483.9191"] ;
19 -> 21 ;
22 [label="X[13] <= -0.3145\nmse = 87289936.6787\nsamples = 106\nvalue = 21667.8607"] ;
18 -> 22 ;
23 [label="mse = 59324893.1923\nsamples = 86\nvalue = 24625.8545"] ;
22 -> 23 ;
24 [label="mse = 8133329.7712\nsamples = 20\nvalue = 8948.4871"] ;
22 -> 24 ;
25 [label="X[0] <= 0.7212\nmse = 286926600.079\nsamples = 13\nvalue = 56424.1926"] ;
17 -> 25 ;
26 [label="X[1] <= 0.1423\nmse = 39647453.1627\nsamples = 7\nvalue = 42838.3191"] ;
25 -> 26 ;
27 [label="mse = 15638007.6946\nsamples = 3\nvalue = 49065.0083"] ;
26 -> 27 ;
28 [label="mse = 6766735.9103\nsamples = 4\nvalue = 38168.3022"] ;
26 -> 28 ;
29 [label="X[7] <= -0.1528\nmse = 108851934.911\nsamples = 6\nvalue = 72274.3783"] ;
25 -> 29 ;
30 [label="mse = 8227579.0902\nsamples = 3\nvalue = 63556.6902"] ;
29 -> 30 ;
31 [label="mse = 57480120.0443\nsamples = 3\nvalue = 80992.0663"] ;
29 -> 31 ;
32 [label="X[5] <= 1.5257\nmse = 332545987.325\nsamples = 155\nvalue = 48687.6944"] ;
0 -> 32 [labeldistance=2.5, labelangle=-45, headlabel="False"] ;
33 [label="X[4] <= 1.2813\nmse = 100156504.272\nsamples = 108\nvalue = 41748.742"] ;
32 -> 33 ;
34 [label="X[13] <= -0.534\nmse = 68419330.8681\nsamples = 18\nvalue = 27148.0171"] ;
33 -> 34 ;
35 [label="X[2] <= 0.621\nmse = 11094883.2719\nsamples = 12\nvalue = 32668.9565"] ;
34 -> 35 ;
36 [label="mse = 3754320.022\nsamples = 8\nvalue = 30684.539"] ;
35 -> 36 ;
37 [label="mse = 2148534.3841\nsamples = 4\nvalue = 36637.7913"] ;
35 -> 37 ;
38 [label="X[11] <= -0.6925\nmse = 183600.4858\nsamples = 6\nvalue = 16106.1385"] ;
34 -> 38 ;
39 [label="mse = 23951.8661\nsamples = 3\nvalue = 15693.0474"] ;
38 -> 39 ;
40 [label="mse = 1960.6082\nsamples = 3\nvalue = 16519.2296"] ;
38 -> 40 ;
41 [label="X[6] <= -0.3325\nmse = 55340459.2385\nsamples = 90\nvalue = 44668.8869"] ;
33 -> 41 ;
42 [label="X[12] <= -0.2457\nmse = 39802583.7292\nsamples = 34\nvalue = 40761.5413"] ;
41 -> 42 ;
43 [label="mse = 3769033.1303\nsamples = 5\nvalue = 30960.5337"] ;
42 -> 43 ;
44 [label="mse = 26597717.3599\nsamples = 29\nvalue = 42451.3702"] ;
42 -> 44 ;
45 [label="X[11] <= -0.0149\nmse = 49876819.1064\nsamples = 56\nvalue = 47041.2039"] ;
41 -> 45 ;
46 [label="mse = 33155141.1843\nsamples = 47\nvalue = 45396.9822"] ;
45 -> 46 ;
47 [label="mse = 49355215.4967\nsamples = 9\nvalue = 55627.6949"] ;
45 -> 47 ;
48 [label="X[11] <= -0.1867\nmse = 501669454.382\nsamples = 47\nvalue = 64632.5212"] ;
32 -> 48 ;
49 [label="X[15] <= 1.0734\nmse = 200477552.882\nsamples = 32\nvalue = 53748.7527"] ;
48 -> 49 ;
50 [label="X[7] <= 0.4851\nmse = 129249530.526\nsamples = 8\nvalue = 70458.5527"] ;
49 -> 50 ;
51 [label="mse = 22309950.2196\nsamples = 4\nvalue = 60536.3342"] ;
50 -> 51 ;
52 [label="mse = 39288270.2641\nsamples = 4\nvalue = 80380.7712"] ;
50 -> 52 ;
53 [label="X[12] <= -0.2399\nmse = 100123597.395\nsamples = 24\nvalue = 48178.8193"] ;
49 -> 53 ;
54 [label="mse = 30453020.5232\nsamples = 6\nvalue = 34307.4571"] ;
53 -> 54 ;
55 [label="mse = 37829482.4639\nsamples = 18\nvalue = 52802.6068"] ;
53 -> 55 ;
56 [label="X[8] <= -0.301\nmse = 352396830.877\nsamples = 15\nvalue = 87851.2275"] ;
48 -> 56 ;
57 [label="X[15] <= 1.3659\nmse = 127060942.782\nsamples = 11\nvalue = 97155.9699"] ;
56 -> 57 ;
58 [label="mse = 61496334.5971\nsamples = 6\nvalue = 88882.353"] ;
57 -> 58 ;
59 [label="mse = 25023247.1655\nsamples = 5\nvalue = 107084.3102"] ;
57 -> 59 ;
60 [label="X[11] <= -0.0687\nmse = 79232510.2197\nsamples = 4\nvalue = 62263.1859"] ;
56 -> 60 ;
61 [label="mse = 1497632.7891\nsamples = 2\nvalue = 70895.7828"] ;
60 -> 61 ;
62 [label="mse = 7923927.8795\nsamples = 2\nvalue = 53630.5889"] ;
60 -> 62 ;
}